,0,1,2,3,4,5,6,7,8,9,10,11,12,13,14,15
Intern,-0.10997448,0.11445375,-0.04926114,0.1053451,-0.0038400474,-0.0061280536,-0.021155642,0.08741999,-0.04222268,0.033755276,0.11149288,0.03633796,-0.092386805,0.08654291,0.094591215,-0.05204031
Student Assistant,0.06860895,0.013230173,-0.049700826,0.06621043,-0.0025127537,-0.08882945,-0.044734437,-0.0633458,0.0937376,-0.052333117,0.057027273,0.0066484543,-0.16904928,-0.029498791,0.010156946,-0.031561796
Volunteer,-0.09755939,0.108091675,-0.049734727,0.10520031,-0.0023964655,-0.011641637,-0.022450857,0.07853198,-0.034402322,0.03080875,0.11008304,0.03598309,-0.09596418,0.08168209,0.0926813,-0.051726956
Camp Counselor,0.07169142,0.007855706,-0.053236365,0.08953041,0.013485761,-0.08793003,-0.03999798,-0.047611635,0.07433049,-0.018868329,0.07899217,0.025129672,-0.14111225,0.006006031,0.052314837,-0.04197593
Babysitter,0.03326128,-0.1251604,0.041245654,-0.065167755,0.031257074,0.020209663,0.039382912,0.026275087,-0.025112517,0.047630142,-0.040161368,0.014133679,0.181417,0.017284263,0.010865713,0.031016001
Dog Walker,-0.026316809,0.06811571,-0.050122205,0.11464035,0.011762109,-0.033963274,-0.024039567,0.040497497,-0.016769765,0.03859136,0.10691571,0.042069152,-0.086143084,0.07421733,0.1034753,-0.053864807
Lawn Mower,-0.0042231143,-0.09950429,0.037880555,-0.05665269,0.026896961,0.03219472,0.03982952,0.056165654,-0.047330786,0.054369446,-0.028455421,0.01730592,0.17919393,0.03310705,0.021097062,0.026129255
House Cleaner,0.063405305,0.011054327,-0.04715042,0.113680385,0.028503222,-0.06366576,-0.02553879,-0.012399105,0.019929664,0.039358087,0.09421604,0.045120087,-0.073391505,0.05458832,0.104143865,-0.05089939
Farm Hand,0.041969683,-0.020765843,-0.026639903,0.07475511,0.03314268,-0.038616147,-0.0071115983,0.012556877,-0.0058314144,0.052511543,0.070088655,0.043994367,0.00083467166,0.061451476,0.09520699,-0.03393201
Newspaper Delivery,0.030206632,0.0058503863,-0.03849599,0.08821198,0.024380129,-0.048920766,-0.018160785,0.010005524,0.011018626,0.03443496,0.082771115,0.040880628,-0.04877734,0.053961754,0.09031716,-0.04094469
Fast Food Worker,0.1025737,-0.056395773,-0.025552856,0.07899507,0.04429652,-0.05552431,-0.007872694,-0.02119029,0.0070774825,0.0578817,0.06322154,0.047347534,0.01112061,0.052458722,0.10005715,-0.03407435
Cashier,0.13922353,-0.10537389,-0.008778801,0.03346198,0.04290402,-0.057416588,-0.0018432089,-0.05170863,0.028085643,0.03491803,0.02182512,0.03247874,0.038440317,0.014026092,0.05745012,-0.013021781
Retail Sales Associate,0.056863476,0.03184843,-0.059117965,0.08981526,-0.0014063698,-0.09372121,-0.04841342,-0.04597642,0.09135547,-0.04340094,0.08237846,0.016584605,-0.18352325,-0.011988592,0.033918824,-0.042109873
Barista,0.1667923,-0.12648292,0.008573148,-0.025151169,0.028060647,-0.05197477,-0.0011246485,-0.08620013,0.049175832,-0.016249105,-0.032557297,0.0011138055,0.033709176,-0.046779986,-0.018268894,0.013641352
Waiter/Waitress,0.15266006,-0.11142327,-0.004316884,0.018427378,0.039244946,-0.0579819,-0.0024375715,-0.06650642,0.03539013,0.019458659,0.0059182253,0.023265611,0.0340318,-0.0051373495,0.035627004,-0.0058607957
Dishwasher,0.0980293,-0.12161087,0.02780993,-0.021431169,0.036355395,-0.0052927523,0.026928453,-0.01228485,-0.014024015,0.05457554,-0.026775239,0.020011397,0.14301203,0.01334988,0.031773705,0.014930467
Janitor,0.16947514,-0.1286363,0.0034809639,-0.002976615,0.036978114,-0.056963414,-0.00021956592,-0.08124006,0.043198436,0.006473312,-0.014268111,0.013984386,0.04239492,-0.024255643,0.012482852,0.0042016455
Taxi Driver,0.10069063,-0.0776864,-0.019278118,0.054377202,0.043385215,-0.056458484,-0.0054393266,-0.028476736,0.019434895,0.04389665,0.047857434,0.040990833,0.020610964,0.039468605,0.08000247,-0.024217814
Library Assistant,0.094253115,-0.058885854,-0.022693986,0.020622017,0.009632903,-0.07325702,-0.023223797,-0.060226526,0.0822503,-0.03319771,0.018807918,0.006748661,-0.06991203,-0.032290652,0.0008937868,-0.009831551
Hotel Front Desk Clerk,0.113027476,-0.050331187,-0.032720495,0.06893388,0.02956608,-0.07622703,-0.021879194,-0.050877534,0.049518444,0.011774957,0.05460095,0.031517167,-0.052671257,0.01264594,0.061521117,-0.030202681
Administrative Assistant,0.1133356,-0.050163265,-0.029570177,0.012133111,-0.0060839746,-0.093416534,-0.03785715,-0.09202573,0.123377375,-0.07873005,0.008851116,-0.010254033,-0.13343415,-0.07581274,-0.03895824,-0.0058657024
Bank Teller,0.07348387,-0.035007916,-0.030720405,0.07491629,0.03325096,-0.056135148,-0.013981577,-0.015325565,0.016850132,0.036990635,0.06618907,0.040501554,-0.023182692,0.043370213,0.08426383,-0.0340184
Customer Service Representative,0.10186093,0.00758937,-0.060514856,0.091918334,0.005381309,-0.11301828,-0.052296802,-0.078513704,0.114024185,-0.049420316,0.077865,0.016665941,-0.19144487,-0.02543944,0.031442188,-0.041915663
Security Guard,0.10314349,-0.03911201,-0.03594409,0.07136249,0.028113555,-0.0767344,-0.024312811,-0.04894255,0.053998206,0.0077606146,0.0592308,0.030790446,-0.06651183,0.012991962,0.060428414,-0.032043066
School Bus Driver,0.11102764,-0.08791072,-0.014964155,0.050408717,0.04638794,-0.05375313,-0.0016635628,-0.029963113,0.014740685,0.050191175,0.04277079,0.041814703,0.037745632,0.040072203,0.08144723,-0.021777978
Home Health Aide,0.06105214,-0.114695564,0.01876546,-0.0757217,0.0024271715,-0.029505571,0.0047861375,-0.04207605,0.060600344,-0.045354795,-0.051243562,-0.016361922,0.035015836,-0.058488905,-0.061565865,0.032340243
Data Entry Clerk,0.07969185,0.030559601,-0.05577014,0.1149739,0.011900285,-0.08661742,-0.041277636,-0.048324138,0.06722413,-0.004225289,0.08852212,0.028499851,-0.14842926,0.014184289,0.06939723,-0.049992364
Receptionist,-0.058748994,0.077351004,-0.04653701,0.09922848,0.004923256,-0.024071394,-0.021866525,0.054289486,-0.018070381,0.02933955,0.10097244,0.036383145,-0.08602393,0.071151085,0.08949822,-0.04815934
Mail Carrier,0.07680777,-0.07398059,-0.009507392,0.041091707,0.041232344,-0.036528718,0.004068126,-0.0040195715,-0.00026944434,0.05394628,0.039632488,0.04011191,0.05439433,0.046091124,0.07844684,-0.017797623
Lifeguard,0.12242331,-0.021865869,-0.052067153,0.09283152,0.025546081,-0.101340376,-0.03963015,-0.07366091,0.08436984,-0.012891563,0.0751359,0.029422382,-0.1296604,0.0012435257,0.058756687,-0.04199067
Office Manager,0.07129403,0.009617767,-0.052281357,0.0801326,0.004696795,-0.09152469,-0.04301605,-0.051378656,0.08958609,-0.035894904,0.07147371,0.017341027,-0.15641373,-0.012240408,0.03364399,-0.03729984
Medical Assistant,0.11517486,-0.108508475,0.0031060856,-0.056847285,-0.0052205087,-0.061555907,-0.014801102,-0.0858445,0.10323398,-0.076602936,-0.047131088,-0.023551304,-0.037050012,-0.09370035,-0.07772882,0.024484403
Maintenance Worker,0.008649195,-0.03388471,-0.009712543,0.021456894,0.017529923,-0.020085411,0.001025283,0.025355592,-0.00010662907,0.025195893,0.034502935,0.024997722,0.020341447,0.03268749,0.045677584,-0.0113248695
Delivery Driver,0.12075699,-0.10699118,-0.002437179,0.033736445,0.04849385,-0.042515364,0.0077070408,-0.02929054,0.0038196596,0.05928701,0.024089845,0.03947862,0.07686361,0.036154862,0.0750993,-0.012683137
Call Center Agent,0.064533465,0.045009118,-0.06568417,0.1257971,0.011272253,-0.09200562,-0.047274347,-0.039239112,0.067636795,-0.008517185,0.10564591,0.032631848,-0.17201434,0.021625,0.07710311,-0.05713512
Real Estate Agent,-0.19688362,0.07467389,-0.0030009595,0.005647701,-0.014253385,0.064345956,0.01709191,0.16261375,-0.10490139,0.04080085,0.04997745,0.02042096,0.04704483,0.0854496,0.04681479,-0.009495037
Teacher's Aide,0.13141339,-0.13794675,0.018338725,-0.014412787,0.04605247,-0.0294256,0.018489188,-0.042461816,0.004659459,0.043716487,-0.01669091,0.02296568,0.11485649,0.008924937,0.0343014,0.009984862
Cable Installer,0.13310178,-0.056604654,-0.008465301,0.06297762,0.032616913,-0.04521621,-0.002339457,-0.04671537,0.020476807,0.050508145,0.02477377,0.02880754,0.023237748,0.018796904,0.068075195,-0.020181214
Warehouse Worker,0.08347498,-0.061248146,-0.020493466,0.06177085,0.041020624,-0.04852263,-0.0041365772,-0.009669788,0.0081453845,0.052124653,0.05590819,0.0440384,0.022633553,0.049423277,0.089028865,-0.02753377
Painter,-0.13981847,0.10636791,-0.037319474,0.07986159,-0.005778837,0.013669741,-0.010465735,0.11140432,-0.060369525,0.037515227,0.0978403,0.033231143,-0.05418654,0.09043845,0.08476178,-0.041305527
Licensed Practical Nurse,-0.019122563,-0.11200361,0.040699106,-0.12378572,-0.0057003284,0.014629495,0.024973787,0.0108728325,0.019845348,-0.038841758,-0.0735906,-0.023671063,0.102019824,-0.04635281,-0.08107198,0.051719237
Police Officer,0.080184296,-0.050331406,-0.023934586,0.047413055,0.027304549,-0.059978038,-0.0143820625,-0.03433797,0.03898031,0.011883513,0.043986823,0.027326863,-0.029717477,0.015539897,0.050911248,-0.021606775
Firefighter,0.053877126,-0.10044767,0.015057669,-0.01966426,0.030164402,-0.013379906,0.01787331,-0.00027001102,-0.0013400029,0.0345445,-0.007463122,0.020426953,0.09898982,0.01704819,0.028221127,0.009616031
Truck Driver,0.11169557,-0.07148519,-0.020121612,0.062999286,0.042842124,-0.055285573,-0.0061422205,-0.030035999,0.014719322,0.049299225,0.04894668,0.041774232,0.018956155,0.03951779,0.084494136,-0.027013527
Paralegal,0.07798044,0.032784447,-0.060150325,0.06339612,-0.014276497,-0.10887737,-0.06016432,-0.10169524,0.122634225,-0.09576083,0.052795798,-0.010361612,-0.24238703,-0.06183656,-0.025567248,-0.031614814
Graphic Designer,-0.11091311,0.047202896,-0.016090441,0.01886981,-0.008642598,0.011448782,-0.0020058267,0.08729586,-0.028223906,0.0074873995,0.050436668,0.015273871,-0.01867467,0.045683093,0.03156277,-0.013425985
Reporter,-0.122292556,0.111322716,-0.04447336,0.09695813,-0.0032587482,0.0025566171,-0.016249917,0.09783216,-0.051375657,0.03848404,0.10766127,0.036598135,-0.07400829,0.09132991,0.094251,-0.048571613
Electrician,-0.1665675,-0.007942296,0.031147098,-0.07172767,-0.005829021,0.06923189,0.038320716,0.14578658,-0.071860984,0.02852581,-0.0060415403,0.0070367386,0.13360235,0.051327754,0.00065090065,0.026901552
Plumber,-0.066131674,-0.0172508,0.00396226,-0.0010912373,0.012610228,0.02025353,0.017629912,0.08680789,-0.046808083,0.04409524,0.02980682,0.02592981,0.07626195,0.05863433,0.04840028,-0.0027147026
Welder,-0.07502815,0.10478446,-0.054320846,0.11641425,0.00081137824,-0.022609914,-0.026492368,0.06499164,-0.025563546,0.030764496,0.11550353,0.038417436,-0.10796485,0.079742186,0.09877688,-0.056125462
Registered Nurse,-0.05167491,-0.11241451,0.053970702,-0.15740997,-0.015999567,0.035698168,0.033511654,0.029252732,0.01053659,-0.048081134,-0.09505711,-0.034436148,0.12673092,-0.05769593,-0.10799436,0.06616326
Accountant,-0.15803269,0.11543433,-0.036547445,0.07715863,-0.009911951,0.02181814,-0.009130224,0.12345767,-0.0703109,0.037850376,0.097753234,0.032238226,-0.052245185,0.093352094,0.08293696,-0.040772136
School Teacher,0.029213643,-0.055687748,-0.007205745,0.0039967773,0.01820505,-0.03154579,-0.001559602,-0.0033410026,0.021501139,0.005317031,0.019226711,0.01660303,0.012348539,0.012493402,0.023493022,-0.0038682902
Web Developer,-0.16079058,0.13489923,-0.043246854,0.09326517,-0.015143837,0.024438562,-0.013916892,0.1244831,-0.085298024,0.038935475,0.10641922,0.033203375,-0.07086384,0.09567676,0.08865095,-0.048202682
Dental Hygienist,-0.12785934,-0.07974425,0.06877945,-0.15383592,-0.005427812,0.087160595,0.05924809,0.116486624,-0.044216532,0.012436165,-0.07930269,-0.015238792,0.2200808,0.004082142,-0.060644533,0.06549527
Insurance Agent,-0.13577382,0.065993816,-0.017831722,0.0397225,-0.004404446,0.029798651,0.003671058,0.11798201,-0.0718346,0.03991537,0.06651924,0.027501235,0.004989202,0.079993814,0.06432445,-0.023250418
Mechanical Engineer,-0.11980816,-0.007090758,0.017031059,-0.046421647,-0.0045095463,0.042028174,0.023881456,0.10841839,-0.047003888,0.016164308,0.0047592046,0.0075870347,0.08347763,0.037661105,0.0036734948,0.016295636
Pharmaceutical Sales Representative,0.04141477,0.04437218,-0.061107773,0.09795401,-0.000392463,-0.087428406,-0.047126886,-0.031935062,0.078137636,-0.034087807,0.09169662,0.020909488,-0.18004958,0.0015172211,0.045635197,-0.046172608
Real Estate Broker,-0.18171906,0.05905697,0.00013099615,0.00046032664,-0.009607752,0.060317144,0.019179298,0.15552966,-0.097182214,0.042523082,0.04548958,0.021337276,0.058961842,0.08271966,0.04643915,-0.006656772
Journalist,-0.14472075,0.08107527,-0.025934981,0.05189202,-0.0051343446,0.021617746,-0.0023986131,0.11651781,-0.06325704,0.0341946,0.07956274,0.028744867,-0.021383397,0.08382722,0.06941356,-0.029216776
Software Engineer,-0.17736994,0.03201172,0.013255816,-0.033528306,-0.01031898,0.06292893,0.026309218,0.14866348,-0.080771826,0.030780083,0.02189099,0.012874836,0.084274046,0.064361826,0.020972056,0.008990729
Pharmacist,-0.13304609,-0.07995043,0.06871054,-0.15500604,-0.004268991,0.08717407,0.059847,0.120390296,-0.04695165,0.013258508,-0.07705356,-0.013941679,0.22198838,0.007011842,-0.05884849,0.06562258
Physical Therapist,-0.11476338,-0.077699065,0.057621233,-0.14735804,-0.011776106,0.06483379,0.045797218,0.089788884,-0.02315266,-0.013392537,-0.07492952,-0.021328919,0.1669908,-0.015211602,-0.07476139,0.061463714
Architect,-0.12773831,0.114706874,-0.0445595,0.09606285,-0.0043772818,0.0036999118,-0.01627349,0.100683115,-0.050929073,0.037257474,0.10816319,0.035971787,-0.07591558,0.091634825,0.093070105,-0.048337184
Veterinarian,-0.06733458,-0.09778884,0.058323976,-0.11492136,0.01165095,0.06183611,0.053034704,0.08618158,-0.046659302,0.033312183,-0.060303103,-0.00052140024,0.2112517,0.016455628,-0.024692781,0.050614227
Marketing Manager,0.05843913,0.008127327,-0.045992527,0.056234576,-0.0039738803,-0.08567583,-0.041621584,-0.050730653,0.09414542,-0.05467224,0.056107942,0.00673602,-0.1567031,-0.0298382,0.006813643,-0.026950093
Environmental Scientist,-0.21093683,0.06125135,0.0063912612,-0.017493924,-0.012960463,0.07069782,0.024663616,0.17443901,-0.09827111,0.038913913,0.04054971,0.018094596,0.07313972,0.083556674,0.036866304,0.000580461
Financial Analyst,-0.20608006,0.09745549,-0.012941924,0.025819624,-0.017181028,0.059457116,0.010364494,0.16504192,-0.10449784,0.0407047,0.066538475,0.023451487,0.017647339,0.09229898,0.057186555,-0.018960215
Civil Engineer,-0.14046235,-0.010336735,0.024081675,-0.053905584,-0.0013084628,0.05632652,0.03281653,0.13072698,-0.06452183,0.031776093,0.0032350689,0.011651102,0.11770982,0.052478906,0.012208207,0.019445246
Occupational Therapist,-0.07999423,-0.09706393,0.055894002,-0.15214922,-0.013941107,0.04937698,0.039302375,0.057398926,-0.006360667,-0.031119091,-0.086272165,-0.028240131,0.14661896,-0.038007755,-0.092088416,0.0638868
Attorney,-0.13970014,0.11148449,-0.039686542,0.085626625,-0.0057995683,0.011877933,-0.012095846,0.10981179,-0.058862533,0.038333364,0.10205722,0.034320015,-0.061072275,0.09241022,0.0882994,-0.04391313
Dentist,-0.11567454,0.10638583,-0.04394389,0.0962989,-0.0018928227,0.000628571,-0.016007772,0.0945527,-0.04884548,0.038952265,0.10642519,0.036893535,-0.071815975,0.09014771,0.094336435,-0.04812272
Optometrist,-0.14024936,-0.0648044,0.061984424,-0.13922241,-0.004547144,0.084471345,0.056184046,0.12596957,-0.04699499,0.016508283,-0.063248165,-0.0100984685,0.20615144,0.015776748,-0.04738551,0.058479827
Podiatrist,-0.13254686,-0.072555095,0.06595221,-0.14764476,-0.0053113867,0.08668677,0.057976842,0.119768545,-0.04330806,0.014422833,-0.07294681,-0.013333822,0.21452625,0.008888716,-0.055266134,0.062467996
Actuary,-0.18439293,0.09536853,-0.019057805,0.041625403,-0.011223288,0.044581994,0.0053642,0.14648099,-0.09077501,0.042574063,0.075659506,0.027461234,0.0016902345,0.09400913,0.06789536,-0.025096864
Political Scientist,-0.20666066,0.06906253,0.0011426578,-0.0055856,-0.013314924,0.06683742,0.020759165,0.1704583,-0.10009237,0.03962367,0.04725268,0.019745845,0.059143566,0.08576476,0.042807132,-0.0047475994
Aerospace Engineer,-0.18619342,0.015340057,0.025075689,-0.059929214,-0.010817527,0.07403337,0.03491611,0.15711808,-0.083107404,0.029331712,0.004359641,0.00798537,0.11644382,0.05895569,0.006462212,0.020712724
Human Resources Manager,0.10451295,-0.021876877,-0.04261138,0.037673302,-0.007166264,-0.103901155,-0.046608176,-0.08906062,0.12917785,-0.08099113,0.033887327,-0.004779021,-0.1713645,-0.067056075,-0.024023246,-0.017565195
Economist,-0.18437822,0.059452437,-0.00093215465,0.0006126247,-0.008460222,0.054600652,0.018074965,0.15234575,-0.08478613,0.039294746,0.048976876,0.0214109,0.051971715,0.082424104,0.046340175,-0.006538689
Biomedical Engineer,-0.18405499,0.01027139,0.026944457,-0.06452094,-0.010376737,0.073739916,0.035908263,0.15540408,-0.08078269,0.027911583,0.00093231193,0.0070137484,0.12057479,0.056326937,0.0032722314,0.022870982
Surgeon,-0.12991884,0.11126885,-0.04133407,0.09075676,-0.0046505816,0.008221822,-0.013652389,0.10434672,-0.056892026,0.0391584,0.10361086,0.035142265,-0.06553334,0.09145202,0.09081828,-0.0457879
Psychiatrist,-0.13755196,0.11135033,-0.04025182,0.086652465,-0.005503772,0.010539387,-0.012614175,0.108442694,-0.05696239,0.03802609,0.102731,0.034548488,-0.06278588,0.091984555,0.088714264,-0.044355515
Pediatrician,-0.1557542,-0.038927216,0.04722628,-0.10786829,-0.0047718915,0.075925,0.04765032,0.13639788,-0.059750557,0.021582656,-0.03507688,-0.0015473986,0.17119221,0.03333385,-0.024295138,0.04367882
Obstetrician and Gynecologist,-0.111266546,-0.083735004,0.06516075,-0.14327994,-0.002504576,0.078694806,0.056150544,0.106141225,-0.043360222,0.014705095,-0.07494047,-0.012826307,0.21176583,0.0042916215,-0.053987555,0.061445307
Orthodontist,-0.12745124,-0.07285658,0.062096216,-0.14442895,-0.007586531,0.07897726,0.05336353,0.111604206,-0.04143863,0.0061260485,-0.07165166,-0.015137243,0.19650002,0.0023922122,-0.05946349,0.06081998
Prosthodontist,-0.13254686,-0.072555095,0.06595221,-0.14764476,-0.0053113867,0.08668678,0.057976846,0.11976855,-0.04330806,0.014422833,-0.07294682,-0.013333823,0.21452625,0.008888715,-0.05526614,0.062468
Physician,-0.121710725,0.112612836,-0.044528782,0.09788006,-0.0031548117,0.0026871455,-0.016288815,0.09801864,-0.0516993,0.03914641,0.10795659,0.036600854,-0.07441666,0.091656536,0.09477401,-0.048815988
Chief Executive Officer,0.052956887,-0.04186432,-0.013233727,-0.026156804,-0.016047053,-0.05898898,-0.024084328,-0.04926798,0.09422538,-0.080851756,-0.00963335,-0.018863285,-0.090137705,-0.07393703,-0.060993444,0.010133781
Anesthesiologist,-0.11278066,-0.07766016,0.061429873,-0.14237057,-0.005626063,0.075300924,0.052358303,0.10435181,-0.035691645,0.0061321356,-0.07216778,-0.014508344,0.1959814,-0.00056158105,-0.058708917,0.06015236
Oral and Maxillofacial Surgeon,-0.13332257,-0.07525977,0.06817897,-0.15287586,-0.0061483746,0.08857018,0.059211403,0.12006751,-0.044621434,0.012771182,-0.07722607,-0.01501317,0.21848488,0.006155641,-0.059645586,0.06488468
Tech Company Founder,-0.14026496,0.12770872,-0.043888837,0.09907723,-0.010504882,0.017126352,-0.014901478,0.1134933,-0.07735129,0.04253667,0.106703304,0.034757417,-0.070767164,0.095069714,0.09365521,-0.049770202
Professional Athlete,-0.18504013,0.08884535,-0.0013986686,0.012289546,-0.032788802,0.07264271,0.011675205,0.14652957,-0.12625793,0.028878098,0.027497191,0.0037053602,0.02605766,0.06527592,0.025646623,-0.009681984
Movie Star,-0.18340358,0.09530797,-0.015823787,0.03680415,-0.016233437,0.051086713,0.006246752,0.1473991,-0.1006022,0.039460048,0.06575395,0.022098552,0.006113227,0.08798868,0.059376422,-0.022449879
Top Executive at Fortune 500 Company,-0.20639803,0.10498299,-0.015383615,0.032244153,-0.017776825,0.060090553,0.009061131,0.16841379,-0.11052835,0.04227621,0.07080347,0.024396924,0.012524658,0.09526525,0.06132464,-0.021904973
Successful Author,-0.19684966,0.097322255,-0.016264964,0.03422163,-0.014524887,0.053138044,0.0078613935,0.1584057,-0.101628974,0.04162461,0.07145633,0.02518727,0.010535268,0.09431196,0.06317535,-0.022349654
Top Surgeon Specialist,0.01925622,-0.09055421,0.024831377,-0.08945622,-0.006432076,-0.003515607,0.011692045,-0.0022933057,0.04354739,-0.042461533,-0.053148072,-0.018938143,0.055884328,-0.05297059,-0.06792634,0.03717316
Venture Capitalist,-0.14778687,0.13961752,-0.05016145,0.10519809,-0.013288002,0.012054699,-0.019908687,0.11460757,-0.068205,0.035164136,0.1149416,0.03508828,-0.09331529,0.093971446,0.09338498,-0.05358002
International Lawyer,-0.19560361,0.09489174,-0.017253654,0.034000523,-0.013259364,0.048102617,0.006625088,0.15350126,-0.09068951,0.038773935,0.07251303,0.025284003,0.0053227907,0.09274422,0.062336463,-0.022221075
Major Real Estate Developer,-0.1896261,0.063153386,0.0011210254,-0.0014933939,-0.012515181,0.06546865,0.019960249,0.16030657,-0.104816064,0.041903425,0.04316944,0.019516215,0.061000746,0.08252457,0.043822926,-0.0058439653
Financial Market Trader,-0.1410266,0.10333656,-0.035618555,0.066646606,-0.013456869,0.014975186,-0.011396944,0.11278197,-0.058822673,0.023203751,0.089224026,0.026914854,-0.060759213,0.07568946,0.06691924,-0.03631011
