,0,1,2,3,4,5,6,7,8,9,10,11,12,13,14,15
Intern,0.22375296,0.055633653,-0.061658103,0.066167444,0.010492789,-0.008940439,0.041825596,0.024488846,0.09593821,-0.06575871,-0.016174931,0.03777044,-0.039182797,-0.052490544,0.0012782759,0.0024480547
Student Assistant,-0.018175825,0.05815809,-0.20696415,-0.07736472,0.009328324,-0.011314989,0.023827862,0.0057399743,-0.032539427,-0.04496849,0.08584547,0.038158927,-0.04864943,0.0025158792,-0.0068452605,-0.007862153
Volunteer,0.20921408,0.057438694,-0.07381166,0.059423916,0.010495266,-0.008483016,0.042469915,0.024434023,0.08507919,-0.06619091,-0.011213131,0.038700268,-0.040753033,-0.048161287,0.0014623052,0.000922651
Camp Counselor,-0.021931916,0.06671865,-0.20737118,-0.043407906,0.0078005437,-0.002748004,0.039676297,0.014906073,-0.06496321,-0.055288967,0.05747383,0.040996693,-0.050621107,0.011736077,0.0027643035,-0.01626919
Babysitter,-0.26523685,-0.06132982,0.13155513,0.016952755,-0.012654737,0.030173631,-0.03118088,-0.008506828,-0.18578903,0.07071842,-0.05041634,-0.04347681,0.052069154,0.06906793,0.014145342,-0.012534016
Dog Walker,0.1401231,0.057368703,-0.100317806,0.05226172,0.006703931,-0.000781626,0.04893453,0.026114862,0.025722083,-0.06376835,-0.016891936,0.035519708,-0.038634397,-0.02111739,0.008854947,-0.010641771
Lawn Mower,-0.1477868,-0.09097895,0.10238389,-0.010413087,-0.03039908,0.029226005,-0.015272931,-0.0040535373,-0.07072844,0.06849407,-0.08920728,-0.07131386,0.07615721,0.08612057,0.028047007,-0.031148942
House Cleaner,0.048502054,0.06420956,-0.15790272,0.024367785,0.004523118,0.0051776012,0.055190623,0.026775386,-0.047087193,-0.06443171,-0.0018212582,0.037568673,-0.043274384,0.010937255,0.01368517,-0.02276283
Farm Hand,0.015045587,0.035862584,-0.11188241,0.030234315,-0.00455994,0.014433276,0.051484954,0.02684966,-0.05798769,-0.04461701,-0.035832215,0.015762571,-0.019098548,0.034323394,0.022706198,-0.031011136
Newspaper Delivery,0.050204627,0.04531753,-0.1377353,0.0056040687,0.00067708816,0.0034545339,0.044529833,0.02140104,-0.017877884,-0.049719967,0.00040413195,0.024677757,-0.030265192,0.012850931,0.012200816,-0.020957245
Fast Food Worker,-0.0524128,0.038776513,-0.13799874,0.02809082,-0.007402186,0.022269497,0.05990943,0.029118776,-0.121817574,-0.044795524,-0.044307414,0.014826406,-0.018831288,0.059507973,0.03036215,-0.04250171
Cashier,-0.14699951,0.015475711,-0.14915289,-0.0012653405,-0.01706601,0.02977895,0.053131346,0.019956153,-0.17650396,-0.021236122,-0.052350607,-0.0056583392,0.00037036938,0.09428745,0.037682515,-0.05459098
Retail Sales Associate,0.015597684,0.051425878,-0.21225275,-0.087485135,0.0066902423,-0.014514042,0.02232034,0.00342037,0.005134614,-0.04382053,0.087240174,0.033029478,-0.04469483,0.0023689277,-0.0076930164,-0.009014625
Barista,-0.15309657,0.011842658,-0.15904967,0.01435934,-0.02327212,0.037068717,0.06615989,0.022986053,-0.1925361,-0.023438815,-0.087819606,-0.013449324,0.007715136,0.10919519,0.049005836,-0.06757888
Waiter/Waitress,-0.15808845,0.0102258185,-0.14824487,0.0031860243,-0.020375185,0.03305934,0.05611567,0.019306075,-0.18618152,-0.018226102,-0.067559026,-0.011485383,0.00614242,0.102552906,0.042375974,-0.06002704
Dishwasher,-0.2066516,-0.052249983,-0.018583404,-0.031673193,-0.025742646,0.029042818,0.004308387,-0.003192857,-0.1490556,0.04263331,-0.05967732,-0.047904145,0.04774724,0.09993835,0.030121356,-0.04212788
Janitor,-0.16297328,0.011803716,-0.15178145,0.015750702,-0.022516374,0.03867858,0.06567602,0.024891235,-0.19895895,-0.022847105,-0.086656705,-0.012586741,0.0077426126,0.11162998,0.04892913,-0.06701352
Taxi Driver,-0.124754004,0.034546245,-0.15555964,0.002111946,-0.009045999,0.024877336,0.054195832,0.024761274,-0.16135794,-0.034987688,-0.028413247,0.010917719,-0.016189726,0.07705046,0.030423434,-0.045435578
Library Assistant,-0.10124108,0.041784633,-0.20360844,-0.09244786,0.0022255713,-0.0015116087,0.022317363,0.005236305,-0.08415911,-0.029667454,0.07539119,0.024168156,-0.034581613,0.03659529,0.000982025,-0.01896332
Hotel Front Desk Clerk,-0.07345449,0.047461893,-0.19085258,-0.0156117,-0.0038148991,0.013660565,0.051181935,0.01923083,-0.1218901,-0.04478939,0.00044341764,0.021741958,-0.029405965,0.052709267,0.020995412,-0.036967672
Administrative Assistant,-0.07653527,0.043973166,-0.22517686,-0.13216469,0.006229587,-0.013518314,0.009789946,-0.002595773,-0.03862228,-0.028540974,0.11799881,0.029027913,-0.041746337,0.019441746,-0.011257067,-0.008662182
Bank Teller,-0.050495982,0.04091807,-0.14715908,0.010400506,-0.005032827,0.017142294,0.052568976,0.02441662,-0.10740986,-0.043257844,-0.021947946,0.017686654,-0.022771843,0.050630037,0.024087034,-0.03630011
Customer Service Representative,-0.016776122,0.05968773,-0.24240983,-0.09540017,0.007383381,-0.013124834,0.026433028,0.0035232024,-0.027551636,-0.04772882,0.09558572,0.0377396,-0.050656497,0.0105336625,-0.0065385206,-0.012737381
Security Guard,-0.06896832,0.054283194,-0.18874158,-0.020089904,0.00021805413,0.0106353015,0.048013065,0.019869672,-0.11506417,-0.047833286,0.016752474,0.028543878,-0.036206484,0.04235175,0.016093541,-0.030668307
School Bus Driver,-0.119783804,0.028726492,-0.14317046,0.0127945915,-0.011969877,0.028463403,0.058410037,0.0273972,-0.16101496,-0.03389793,-0.047542132,0.0057114875,-0.010049623,0.08322691,0.035265334,-0.050036926
Home Health Aide,-0.16526276,0.02174138,-0.17239186,-0.11737405,-0.00035909726,-0.0018694641,0.004959333,-0.005741699,-0.09740408,-0.006130837,0.08655171,0.011328853,-0.021725366,0.046878166,-0.002406961,-0.015472609
Data Entry Clerk,0.02128875,0.053904515,-0.2032027,-0.06765559,0.0072201383,-0.013212885,0.024323525,0.0028381716,-0.0048017628,-0.04528466,0.0753676,0.03441516,-0.044820923,-0.0010995237,-0.0059949965,-0.008878048
Receptionist,0.16095567,0.060454875,-0.101429485,0.048180785,0.009048326,-0.00502304,0.045976512,0.02433284,0.044283893,-0.06600967,-0.0067265583,0.039047334,-0.04229448,-0.03240284,0.0046572885,-0.005459931
Mail Carrier,-0.092972964,0.0057204077,-0.09672894,0.007906826,-0.015551666,0.026268588,0.044726398,0.022026747,-0.11816402,-0.016946545,-0.054346688,-0.008807415,0.0059667192,0.0775357,0.032780398,-0.04489507
Lifeguard,-0.07723496,0.07270782,-0.21702658,-0.029629694,0.0067047523,0.0062924367,0.047858655,0.019902987,-0.12683122,-0.057466343,0.045662515,0.0429137,-0.052040637,0.030537385,0.009813584,-0.02444222
Office Manager,-0.00441856,0.060015097,-0.21836708,-0.07491087,0.008165565,-0.010194264,0.02898405,0.008489891,-0.02732257,-0.049593918,0.08102251,0.038435575,-0.049465217,0.0065290877,-0.0045493683,-0.0116133625
Medical Assistant,-0.15291277,0.020626137,-0.15126012,-0.1303926,0.0053153387,-0.008897576,-0.011420666,-0.011317172,-0.0777624,0.00085269316,0.113164335,0.015519851,-0.024785142,0.025729656,-0.013826606,-0.0018803128
Maintenance Worker,-0.036547482,-0.0018029229,-0.0741661,-0.022021888,-0.011099811,0.011893735,0.024021398,0.0123009365,-0.038467232,-0.009335143,-0.019600322,-0.008615456,0.0053656353,0.046206385,0.01731097,-0.026767941
Delivery Driver,-0.16076146,4.4391443e-05,-0.10427057,0.0019197033,-0.018951962,0.03255841,0.045298126,0.020404743,-0.17102526,-0.008714576,-0.060821988,-0.014774193,0.011717736,0.09974649,0.03799492,-0.05288469
Call Center Agent,0.053201735,0.06678891,-0.20438005,-0.04387561,0.009785189,-0.011733091,0.035504267,0.011397706,-0.001556585,-0.05933827,0.064937964,0.043171607,-0.053229794,-0.0077961003,-0.0038239162,-0.009568623
Real Estate Agent,0.16183974,-0.060388513,0.13390182,0.053988073,-0.020061174,0.00818938,0.0016204902,0.010909444,0.14819296,0.020461138,-0.09443267,-0.045594968,0.05101216,0.004537376,0.016627751,-0.008246338
Teacher's Aide,-0.18450354,-0.014929013,-0.0744861,0.010924783,-0.023455521,0.038583525,0.043354854,0.019414645,-0.18297084,0.002916693,-0.085907094,-0.026959803,0.025563082,0.10922359,0.043451466,-0.05707921
Cable Installer,-0.122240506,0.0021058558,-0.14107747,-0.07647282,-0.008397021,0.0016505447,0.0051301247,-0.012713124,-0.08921103,0.0046437173,0.03320981,-0.005777292,-0.001511764,0.048268687,0.0066914926,-0.022897853
Warehouse Worker,-0.071223326,0.02557667,-0.12362008,0.014891225,-0.010393626,0.023298051,0.052616697,0.026137488,-0.118775934,-0.033393685,-0.04403273,0.005754783,-0.009451152,0.06676763,0.03035033,-0.042806607
Painter,0.22725512,0.03790142,-0.023245005,0.07174266,0.0062622773,-0.0063259737,0.03654659,0.02320542,0.109994076,-0.053644154,-0.035259474,0.02513128,-0.02492238,-0.04967412,0.003968823,0.001990339
Licensed Practical Nurse,-0.17583582,-0.014190956,-0.08269991,-0.11220583,-0.005477693,-0.0034980166,-0.017597424,-0.019612247,-0.07377074,0.024895862,0.06550083,-0.011281466,0.004474434,0.04444762,-0.0048737056,-0.008118749
Police Officer,-0.08832745,0.042023726,-0.17076516,-0.027441459,-0.0027913803,0.012120456,0.042597685,0.017903434,-0.11370225,-0.037619486,0.014182386,0.019912217,-0.027196094,0.050651677,0.01698755,-0.03158462
Firefighter,-0.19071242,-0.02689469,-0.036716543,-0.026901942,-0.017062696,0.025849821,0.010193684,0.006033438,-0.14735484,0.023805808,-0.032715976,-0.027408022,0.026435843,0.08641096,0.023940118,-0.035186578
Truck Driver,-0.08790571,0.03129692,-0.13800716,0.01752755,-0.010084482,0.02481972,0.056521848,0.026366469,-0.13955271,-0.03648494,-0.044171415,0.0085720625,-0.012814577,0.0708941,0.03208532,-0.0453868
Paralegal,-0.054833278,0.046468906,-0.18924615,-0.10661085,0.0104122665,-0.018480232,0.004047481,-0.009283203,-0.028762054,-0.026566379,0.110932216,0.032487866,-0.04312159,-0.0056389743,-0.015732367,0.0020410605
Graphic Designer,0.10214142,-0.007989834,-0.015694292,-0.006286729,-0.005805187,-0.0018686767,0.011459343,0.008443276,0.081342846,-0.010402012,-0.020253893,-0.007683485,0.0065695066,-0.006260825,0.0050838864,-0.0062094904
Reporter,0.22952802,0.04914713,-0.046160653,0.071277626,0.008700143,-0.007482601,0.04092568,0.024933752,0.10328798,-0.06215481,-0.025391357,0.033039756,-0.033696584,-0.050752647,0.0028648765,0.0017457628
Electrician,-0.015357951,-0.08499393,0.20012146,0.0062959404,-0.013035306,0.00707667,-0.046929672,-0.011826719,0.059597492,0.06908795,-0.048289698,-0.053797103,0.06307489,0.005856382,-0.0012486029,0.0112648215
Plumber,0.007380084,-0.033332657,0.012973617,0.005515037,-0.018175114,0.01620818,0.016822143,0.013227538,0.010266437,0.008723853,-0.063239574,-0.0303738,0.031191519,0.045240678,0.02233542,-0.026028205
Welder,0.20442452,0.06443541,-0.09168899,0.056222793,0.011959464,-0.009649943,0.044261076,0.02404124,0.07662461,-0.07014921,-0.0031492522,0.04329117,-0.04633768,-0.049401954,0.0005217111,0.0008945935
Registered Nurse,-0.17889097,-0.01682321,-0.08908617,-0.1478507,-0.0037246237,-0.0168462,-0.030729696,-0.035451844,-0.04560086,0.031342927,0.10029691,-0.010502333,0.0016277835,0.033461988,-0.0152031435,0.00097304815
Accountant,0.23120026,0.029125098,-0.0043383413,0.07283699,0.0039845277,-0.005192701,0.03364193,0.023102615,0.12204587,-0.047991436,-0.041118417,0.019146323,-0.018172292,-0.04581474,0.004807202,0.0015989987
School Teacher,-0.093289524,0.033363022,-0.14752772,-0.03625961,-0.0021212294,0.009182269,0.032311577,0.012555785,-0.0993078,-0.028135164,0.02022258,0.0157013,-0.022526553,0.044776663,0.012599773,-0.02562229
Web Developer,0.20280549,-0.017952308,0.06886195,0.060348015,-0.0071131405,-0.0010765238,0.01255811,0.012415399,0.14715916,-0.009744548,-0.065707155,-0.014493869,0.017442169,-0.028684141,0.007961865,0.0003002088
Dental Hygienist,-0.7375373,0.07868115,1.1069335,0.40427214,0.18394393,-0.03690037,-0.3685085,-0.10298389,-0.5917238,0.20786908,0.34268197,0.17117673,-0.09884994,-0.38910782,-0.21630424,0.3330738
Insurance Agent,0.14745958,-0.0050713005,0.024117406,0.050833296,-0.0075043365,0.004450161,0.023883536,0.018436566,0.09018083,-0.019082405,-0.05706521,-0.0073302556,0.008866974,-0.0056450856,0.012903609,-0.009653658
Mechanical Engineer,0.012130273,-0.07544178,0.08093788,-0.041110527,-0.021622872,0.0065235654,-0.020593565,-0.00618157,0.0792634,0.047287814,-0.044659894,-0.054658886,0.05691372,0.031207029,0.009568327,-0.010601122
Pharmaceutical Sales Representative,0.030904895,0.049311575,-0.19957004,-0.07454093,0.005759431,-0.013320093,0.02434514,0.0044833035,0.012166599,-0.04416765,0.07465117,0.031048495,-0.041967344,0.0007355517,-0.0056899353,-0.009739019
Real Estate Broker,0.14124402,-0.059223104,0.120185636,0.045609843,-0.020495305,0.0094885565,0.002965918,0.011002315,0.13214618,0.020480966,-0.09142571,-0.04531505,0.050176673,0.011222715,0.01767478,-0.010982036
Journalist,0.1750259,0.019954795,-0.009937718,0.057064038,0.0006252684,-0.0013637039,0.030228853,0.019459328,0.08882111,-0.037291855,-0.0426438,0.011167859,-0.010778833,-0.030271003,0.0077578067,-0.0032251969
Software Engineer,0.08050969,-0.08487172,0.13861206,-0.0017876654,-0.023268325,0.0071274876,-0.01970255,-0.0028647312,0.12734409,0.048208874,-0.07649971,-0.06092954,0.06598331,0.017511738,0.0119167995,-0.0069458657
Pharmacist,-0.7040495,0.06644085,1.0520121,0.3763553,0.17141521,-0.03378036,-0.3503584,-0.09838198,-0.5578287,0.20211998,0.3195491,0.1558411,-0.08744037,-0.36219785,-0.20312016,0.312946
Physical Therapist,-0.39113495,-0.03468273,0.5401116,0.12956564,0.060099285,-0.006849966,-0.18193081,-0.056297157,-0.24674517,0.14087448,0.111329064,0.02347233,0.009111269,-0.12432292,-0.08434718,0.13168094
Architect,0.24227856,0.05515722,-0.049178623,0.07632497,0.010754839,-0.008978632,0.042663164,0.025810279,0.106297724,-0.06703903,-0.02350914,0.037708092,-0.038371243,-0.057816844,0.0016140757,0.00375796
Veterinarian,-0.37493497,-0.041285012,0.40735796,0.09994977,0.03617202,0.009105625,-0.13039593,-0.0378759,-0.2559946,0.11872458,0.05764267,0.002481319,0.022761991,-0.052931894,-0.049503077,0.08151035
Marketing Manager,-0.0029165947,0.03885583,-0.19927002,-0.1055189,0.004716264,-0.014678982,0.01355236,-0.00035482392,0.009295013,-0.032380253,0.09151089,0.025223235,-0.036463987,0.0062033264,-0.009241744,-0.007822416
Environmental Scientist,0.1305762,-0.09149939,0.18046854,0.029563805,-0.024956536,0.008026073,-0.019021945,-0.0007345513,0.15926902,0.049301624,-0.09994701,-0.06594956,0.07275647,0.0069335406,0.014149198,-0.0046795425
Financial Analyst,0.16611168,-0.05084847,0.11758675,0.051644683,-0.016932944,0.0060366425,0.003544814,0.010413219,0.14517464,0.014185782,-0.08757168,-0.038516507,0.043284494,-0.0036795477,0.014326371,-0.0063608857
Civil Engineer,0.011240148,-0.090105996,0.1165011,-0.025917841,-0.02618019,0.011409162,-0.021506859,-0.005117557,0.08097766,0.056377098,-0.06960622,-0.06584433,0.06990705,0.039777383,0.014678726,-0.013903265
Occupational Therapist,-0.27899155,-0.04775231,0.26966712,0.010327093,0.021603303,-0.0016679569,-0.10641481,-0.038806137,-0.13976142,0.098149255,0.06596749,-0.010498356,0.024974534,-0.032886714,-0.04136588,0.05990948
Attorney,0.23698756,0.044838473,-0.030780634,0.07622045,0.0079211015,-0.007104919,0.03963113,0.024975874,0.11115638,-0.059630923,-0.031928904,0.030199802,-0.030181842,-0.05233647,0.0033209524,0.002470539
Dentist,0.22834821,0.055388585,-0.056115147,0.07383949,0.010027831,-0.0074895355,0.044010554,0.026257941,0.09470792,-0.06677029,-0.023579817,0.037297368,-0.038222894,-0.05183056,0.002963152,0.0013072464
Optometrist,-0.5026773,0.034266446,0.8653756,0.30151123,0.13001335,-0.027050344,-0.27884895,-0.077071644,-0.38408843,0.16612563,0.23194121,0.11006747,-0.054869644,-0.28894204,-0.15796867,0.24684104
Podiatrist,-0.85550344,0.13516751,1.3184403,0.5205017,0.23597978,-0.050861053,-0.43732634,-0.11959658,-0.72178113,0.22401041,0.4375666,0.23803605,-0.15040274,-0.50214624,-0.26991102,0.41477466
Actuary,0.20512725,0.00014717078,0.042188894,0.06258915,-0.0036768888,-0.0007253357,0.022890152,0.019035647,0.13131309,-0.025512949,-0.056454923,-0.0015116041,0.0039642435,-0.029320855,0.008174349,-0.0013723094
Political Scientist,0.15016326,-0.07663196,0.16087057,0.042751875,-0.02208265,0.0075741485,-0.009696577,0.0037141428,0.15627131,0.035585195,-0.10059135,-0.0561466,0.06247354,0.00050703046,0.014972025,-0.005240199
Aerospace Engineer,0.02341422,-0.09033781,0.22086641,0.01906644,-0.014745075,0.0063817855,-0.04643047,-0.011371189,0.09007481,0.06945888,-0.061275557,-0.05795535,0.067834735,-0.0012716051,-7.196946e-05,0.012424994
Human Resources Manager,-0.03391235,0.05045653,-0.24162334,-0.12919487,0.0076036016,-0.017052978,0.0136131635,-0.0013179424,-0.012362849,-0.037422977,0.119789034,0.03367724,-0.0472296,0.01062321,-0.012834519,-0.007869163
Economist,0.1442182,-0.039840177,0.094631076,0.037744235,-0.0121196825,0.003668143,0.0021055352,0.009249473,0.12409226,0.00981421,-0.068844885,-0.029020837,0.03333544,-0.009413316,0.009778274,-0.002976121
Biomedical Engineer,0.0122388275,-0.09109637,0.22015953,0.014945309,-0.014425351,0.0064055105,-0.048433177,-0.012220525,0.083653286,0.0714994,-0.05782901,-0.058114145,0.06803222,3.9493602e-06,-0.0008653895,0.012848978
Surgeon,0.23593888,0.048460044,-0.038105,0.074352995,0.009039037,-0.007905906,0.039907403,0.02476872,0.10816501,-0.061568927,-0.026818488,0.032966927,-0.033283412,-0.05402173,0.002270555,0.0032022013
Psychiatrist,0.236021,0.046518497,-0.035699233,0.07368317,0.008498676,-0.0076952786,0.039633058,0.024724256,0.11002634,-0.060536753,-0.02866645,0.03150984,-0.031730495,-0.05332063,0.002671997,0.0028617554
Pediatrician,-0.1969221,-0.04651311,0.41592327,0.09663296,0.034478556,-0.003682907,-0.1253542,-0.034139372,-0.100173965,0.10386062,0.048607446,-0.00013605226,0.024392212,-0.08826524,-0.053516753,0.088678055
Obstetrician and Gynecologist,-0.5187509,0.0011479417,0.7384465,0.22884251,0.10071997,-0.01357747,-0.24348755,-0.06972791,-0.3766716,0.16568062,0.18225785,0.07105535,-0.024221973,-0.20793949,-0.12605499,0.19695622
Orthodontist,-0.44908732,-0.008686724,0.68092924,0.19821532,0.08937725,-0.014680033,-0.22545522,-0.0653714,-0.31041127,0.15530357,0.16405246,0.058214996,-0.015739346,-0.19156358,-0.115704164,0.18030536
Prosthodontist,-0.85550344,0.13516751,1.3184403,0.5205016,0.23597977,-0.05086105,-0.4373263,-0.11959658,-0.72178113,0.22401038,0.4375666,0.23803605,-0.15040272,-0.50214624,-0.26991102,0.41477466
Physician,0.2387561,0.055059962,-0.049874194,0.07652705,0.01049532,-0.0084491875,0.043046873,0.025960473,0.1034263,-0.06683254,-0.02402427,0.037460607,-0.038159847,-0.055935543,0.002067758,0.0030566985
Chief Executive Officer,-0.04212691,0.013469103,-0.15713672,-0.12248324,7.83924e-05,-0.012404696,-0.0024852199,-0.006294365,0.00872098,-0.008637928,0.08976776,0.008640319,-0.01855903,0.01740573,-0.010003484,-0.0062182774
Anesthesiologist,-0.557899,0.03408005,0.8240379,0.2636046,0.12909032,-0.027367622,-0.2814346,-0.081121735,-0.41716468,0.17059454,0.2536223,0.10916707,-0.05647115,-0.27522662,-0.15890384,0.24267197
Oral and Maxillofacial Surgeon,-0.85859895,0.1339768,1.3199817,0.5191607,0.23580116,-0.050793115,-0.438289,-0.119941995,-0.7225196,0.22526668,0.43795088,0.23732373,-0.14963394,-0.50143784,-0.2700735,0.41484877
Tech Company Founder,0.22706781,0.0051782792,0.039046656,0.080408335,-0.0023330317,-0.002684978,0.024717672,0.016593896,0.13509184,-0.028760321,-0.06410615,0.00082152744,0.001068363,-0.040370602,0.0081699295,0.0006236833
Professional Athlete,0.20997089,-0.012800824,0.07650105,0.09012964,-0.0053582117,-0.005698292,0.012182462,0.00035327164,0.12851556,-0.007979114,-0.077323645,-0.012924692,0.014980608,-0.046945553,0.007104126,0.006522393
Movie Star,0.22243284,-0.015360618,0.0857648,0.08675365,-0.0066513643,-0.00034928913,0.016777532,0.012823075,0.14396153,-0.013029845,-0.08373332,-0.013521244,0.017374458,-0.038538154,0.010306788,0.0017328569
Top Executive at Fortune 500 Company,0.18894422,-0.057709895,0.1437026,0.06551291,-0.017820694,0.0059602563,0.0003887901,0.009109434,0.16261607,0.01868901,-0.10084517,-0.043386027,0.04922737,-0.012679884,0.014733803,-0.003563467
Successful Author,0.21799773,-0.03241866,0.114386536,0.08241918,-0.0109456405,0.0027734202,0.011101056,0.013245958,0.15712903,-0.0015399077,-0.09512566,-0.025379898,0.030502366,-0.030777926,0.012524652,-0.00010005876
Top Surgeon Specialist,-0.3122125,0.026730519,0.24261232,0.006882349,0.058073163,-0.02317881,-0.12910658,-0.04606166,-0.19670463,0.072644085,0.19459032,0.055897776,-0.041166622,-0.10884843,-0.07981276,0.104917966
Venture Capitalist,0.22814277,0.019119518,0.007934366,0.07186088,0.00074925076,-0.003775174,0.03117582,0.021665974,0.13002089,-0.040919773,-0.048899267,0.011165148,-0.010137585,-0.039809965,0.006830674,-0.00039138645
International Lawyer,0.21810329,-0.008912854,0.06764495,0.07866291,-0.0056694625,0.0003365529,0.021407599,0.017154299,0.13944764,-0.01978837,-0.07822715,-0.008859233,0.012288852,-0.035306107,0.01072813,-0.00068748824
Major Real Estate Developer,0.13435169,-0.07853287,0.16469009,0.05457112,-0.023837607,0.011053791,-0.0075226845,0.0041363696,0.13542195,0.038107533,-0.11055922,-0.059008915,0.0655319,0.008204699,0.018613635,-0.008498167
Financial Market Trader,0.13959837,-0.019941615,0.025782777,0.02361879,-0.010260349,0.00069431285,0.012399716,0.009370604,0.11058662,-0.005866815,-0.048183657,-0.017491309,0.017992457,-0.005169542,0.009633749,-0.008122478
